digraph Tree {
node [shape=box, style="filled, rounded", color="black", fontname=helvetica] ;
edge [fontname=helvetica] ;
0 [label="swir2 <= 1199.5\ngini = 0.497\nsamples = 1375\nvalue = [1160, 995]\nclass = poverty", fillcolor="#fbede3"] ;
1 [label="green <= 491.0\ngini = 0.291\nsamples = 768\nvalue = [987, 212]\nclass = poverty", fillcolor="#eb9c64"] ;
0 -> 1 [labeldistance=2.5, labelangle=45, headlabel="True"] ;
5 [label="gini = 0.049\nsamples = 412\nvalue = [620, 16]\nclass = poverty", fillcolor="#e6843e"] ;
1 -> 5 ;
6 [label="swir1 <= 1597.75\ngini = 0.454\nsamples = 356\nvalue = [367, 196]\nclass = poverty", fillcolor="#f3c4a3"] ;
1 -> 6 ;
7 [label="blue <= 418.0\ngini = 0.48\nsamples = 111\nvalue = [70, 105]\nclass = no poverty", fillcolor="#bddef6"] ;
6 -> 7 ;
11 [label="nir <= 2513.75\ngini = 0.476\nsamples = 65\nvalue = [64, 41]\nclass = poverty", fillcolor="#f6d2b8"] ;
7 -> 11 ;
21 [label="blue <= 310.0\ngini = 0.5\nsamples = 48\nvalue = [40, 40]\nclass = poverty", fillcolor="#ffffff"] ;
11 -> 21 ;
23 [label="gini = 0.0\nsamples = 6\nvalue = [12, 0]\nclass = poverty", fillcolor="#e58139"] ;
21 -> 23 ;
24 [label="gini = 0.484\nsamples = 42\nvalue = [28, 40]\nclass = no poverty", fillcolor="#c4e2f7"] ;
21 -> 24 ;
22 [label="gini = 0.077\nsamples = 17\nvalue = [24, 1]\nclass = poverty", fillcolor="#e68641"] ;
11 -> 22 ;
12 [label="gini = 0.157\nsamples = 46\nvalue = [6, 64]\nclass = no poverty", fillcolor="#4ca6e7"] ;
7 -> 12 ;
8 [label="green <= 586.75\ngini = 0.359\nsamples = 245\nvalue = [297, 91]\nclass = poverty", fillcolor="#eda876"] ;
6 -> 8 ;
19 [label="gini = 0.043\nsamples = 51\nvalue = [90, 2]\nclass = poverty", fillcolor="#e6843d"] ;
8 -> 19 ;
20 [label="nir <= 3167.25\ngini = 0.421\nsamples = 194\nvalue = [207, 89]\nclass = poverty", fillcolor="#f0b78e"] ;
8 -> 20 ;
27 [label="nir <= 2017.5\ngini = 0.445\nsamples = 174\nvalue = [177, 89]\nclass = poverty", fillcolor="#f2c09d"] ;
20 -> 27 ;
35 [label="gini = 0.32\nsamples = 8\nvalue = [2, 8]\nclass = no poverty", fillcolor="#6ab6ec"] ;
27 -> 35 ;
36 [label="blue <= 494.0\ngini = 0.433\nsamples = 166\nvalue = [175, 81]\nclass = poverty", fillcolor="#f1bb95"] ;
27 -> 36 ;
37 [label="gini = 0.405\nsamples = 145\nvalue = [163, 64]\nclass = poverty", fillcolor="#efb287"] ;
36 -> 37 ;
38 [label="red <= 884.75\ngini = 0.485\nsamples = 21\nvalue = [12, 17]\nclass = no poverty", fillcolor="#c5e2f7"] ;
36 -> 38 ;
39 [label="gini = 0.363\nsamples = 17\nvalue = [5, 16]\nclass = no poverty", fillcolor="#77bced"] ;
38 -> 39 ;
40 [label="gini = 0.219\nsamples = 4\nvalue = [7, 1]\nclass = poverty", fillcolor="#e99355"] ;
38 -> 40 ;
28 [label="gini = 0.0\nsamples = 20\nvalue = [30, 0]\nclass = poverty", fillcolor="#e58139"] ;
20 -> 28 ;
2 [label="blue <= 589.25\ngini = 0.296\nsamples = 607\nvalue = [173, 783]\nclass = no poverty", fillcolor="#65b3eb"] ;
0 -> 2 [labeldistance=2.5, labelangle=-45, headlabel="False"] ;
3 [label="swir1 <= 2067.0\ngini = 0.493\nsamples = 229\nvalue = [157, 199]\nclass = no poverty", fillcolor="#d5eafa"] ;
2 -> 3 ;
9 [label="blue <= 426.5\ngini = 0.144\nsamples = 45\nvalue = [6, 71]\nclass = no poverty", fillcolor="#4aa5e7"] ;
3 -> 9 ;
33 [label="gini = 0.444\nsamples = 3\nvalue = [4, 2]\nclass = poverty", fillcolor="#f2c09c"] ;
9 -> 33 ;
34 [label="gini = 0.055\nsamples = 42\nvalue = [2, 69]\nclass = no poverty", fillcolor="#3fa0e6"] ;
9 -> 34 ;
10 [label="blue <= 474.75\ngini = 0.497\nsamples = 184\nvalue = [151, 128]\nclass = poverty", fillcolor="#fbece1"] ;
3 -> 10 ;
13 [label="gini = 0.281\nsamples = 38\nvalue = [59, 12]\nclass = poverty", fillcolor="#ea9b61"] ;
10 -> 13 ;
14 [label="swir2 <= 1629.75\ngini = 0.493\nsamples = 146\nvalue = [92, 116]\nclass = no poverty", fillcolor="#d6ebfa"] ;
10 -> 14 ;
15 [label="blue <= 551.25\ngini = 0.492\nsamples = 97\nvalue = [76, 59]\nclass = poverty", fillcolor="#f9e3d3"] ;
14 -> 15 ;
25 [label="swir1 <= 2509.75\ngini = 0.5\nsamples = 80\nvalue = [56, 57]\nclass = no poverty", fillcolor="#fcfdff"] ;
15 -> 25 ;
29 [label="gini = 0.455\nsamples = 45\nvalue = [21, 39]\nclass = no poverty", fillcolor="#a4d2f3"] ;
25 -> 29 ;
30 [label="gini = 0.449\nsamples = 35\nvalue = [35, 18]\nclass = poverty", fillcolor="#f2c29f"] ;
25 -> 30 ;
26 [label="gini = 0.165\nsamples = 17\nvalue = [20, 2]\nclass = poverty", fillcolor="#e88e4d"] ;
15 -> 26 ;
16 [label="swir1 <= 2779.75\ngini = 0.342\nsamples = 49\nvalue = [16, 57]\nclass = no poverty", fillcolor="#71b9ec"] ;
14 -> 16 ;
17 [label="gini = 0.073\nsamples = 37\nvalue = [2, 51]\nclass = no poverty", fillcolor="#41a1e6"] ;
16 -> 17 ;
18 [label="blue <= 499.25\ngini = 0.42\nsamples = 12\nvalue = [14, 6]\nclass = poverty", fillcolor="#f0b78e"] ;
16 -> 18 ;
31 [label="gini = 0.0\nsamples = 1\nvalue = [0, 4]\nclass = no poverty", fillcolor="#399de5"] ;
18 -> 31 ;
32 [label="red <= 1268.75\ngini = 0.219\nsamples = 11\nvalue = [14, 2]\nclass = poverty", fillcolor="#e99355"] ;
18 -> 32 ;
41 [label="gini = 0.0\nsamples = 9\nvalue = [14, 0]\nclass = poverty", fillcolor="#e58139"] ;
32 -> 41 ;
42 [label="gini = 0.0\nsamples = 2\nvalue = [0, 2]\nclass = no poverty", fillcolor="#399de5"] ;
32 -> 42 ;
4 [label="gini = 0.052\nsamples = 378\nvalue = [16, 584]\nclass = no poverty", fillcolor="#3ea0e6"] ;
2 -> 4 ;
}